digraph Tree {
node [shape=box, style="filled, rounded", color="black", fontname="helvetica"] ;
edge [fontname="helvetica"] ;
0 [label="petal length (cm) <= 2.6\ngini = 0.66\nsamples = 88\nvalue = [44, 46, 60]\nclass = virginica", fillcolor="#eee4fc"] ;
1 [label="gini = 0.0\nsamples = 27\nvalue = [44, 0, 0]\nclass = setosa", fillcolor="#e58139"] ;
0 -> 1 [labeldistance=2.5, labelangle=45, headlabel="True"] ;
2 [label="petal width (cm) <= 1.65\ngini = 0.49\nsamples = 61\nvalue = [0, 46, 60]\nclass = virginica", fillcolor="#e2d1f9"] ;
0 -> 2 [labeldistance=2.5, labelangle=-45, headlabel="False"] ;
3 [label="petal width (cm) <= 1.35\ngini = 0.24\nsamples = 30\nvalue = [0, 44, 7]\nclass = versicolor", fillcolor="#58e995"] ;
2 -> 3 ;
4 [label="gini = 0.0\nsamples = 15\nvalue = [0, 21, 0]\nclass = versicolor", fillcolor="#39e581"] ;
3 -> 4 ;
5 [label="petal length (cm) <= 4.95\ngini = 0.36\nsamples = 15\nvalue = [0, 23, 7]\nclass = versicolor", fillcolor="#75eda7"] ;
3 -> 5 ;
6 [label="gini = 0.0\nsamples = 11\nvalue = [0, 22, 0]\nclass = versicolor", fillcolor="#39e581"] ;
5 -> 6 ;
7 [label="sepal width (cm) <= 2.65\ngini = 0.22\nsamples = 4\nvalue = [0, 1, 7]\nclass = virginica", fillcolor="#9355e9"] ;
5 -> 7 ;
8 [label="gini = 0.0\nsamples = 2\nvalue = [0, 0, 4]\nclass = virginica", fillcolor="#8139e5"] ;
7 -> 8 ;
9 [label="petal width (cm) <= 1.55\ngini = 0.38\nsamples = 2\nvalue = [0, 1, 3]\nclass = virginica", fillcolor="#ab7bee"] ;
7 -> 9 ;
10 [label="gini = 0.0\nsamples = 1\nvalue = [0, 0, 3]\nclass = virginica", fillcolor="#8139e5"] ;
9 -> 10 ;
11 [label="gini = 0.0\nsamples = 1\nvalue = [0, 1, 0]\nclass = versicolor", fillcolor="#39e581"] ;
9 -> 11 ;
12 [label="petal length (cm) <= 4.85\ngini = 0.07\nsamples = 31\nvalue = [0, 2, 53]\nclass = virginica", fillcolor="#8640e6"] ;
2 -> 12 ;
13 [label="sepal length (cm) <= 5.95\ngini = 0.48\nsamples = 3\nvalue = [0, 2, 3]\nclass = virginica", fillcolor="#d5bdf6"] ;
12 -> 13 ;
14 [label="sepal length (cm) <= 5.4\ngini = 0.44\nsamples = 2\nvalue = [0, 2, 1]\nclass = versicolor", fillcolor="#9cf2c0"] ;
13 -> 14 ;
15 [label="gini = 0.0\nsamples = 1\nvalue = [0, 0, 1]\nclass = virginica", fillcolor="#8139e5"] ;
14 -> 15 ;
16 [label="gini = 0.0\nsamples = 1\nvalue = [0, 2, 0]\nclass = versicolor", fillcolor="#39e581"] ;
14 -> 16 ;
17 [label="gini = 0.0\nsamples = 1\nvalue = [0, 0, 2]\nclass = virginica", fillcolor="#8139e5"] ;
13 -> 17 ;
18 [label="gini = 0.0\nsamples = 28\nvalue = [0, 0, 50]\nclass = virginica", fillcolor="#8139e5"] ;
12 -> 18 ;
}