digraph Tree {
node [shape=box, style="filled, rounded", color="black", fontname="helvetica"] ;
edge [fontname="helvetica"] ;
0 [label="sepal length (cm) <= 5.55\ngini = 0.66\nsamples = 102\nvalue = [42, 56, 52]\nclass = versicolor", fillcolor="#f7fefa"] ;
1 [label="petal length (cm) <= 2.45\ngini = 0.34\nsamples = 36\nvalue = [39, 11, 0]\nclass = setosa", fillcolor="#eca571"] ;
0 -> 1 [labeldistance=2.5, labelangle=45, headlabel="True"] ;
2 [label="gini = 0.0\nsamples = 28\nvalue = [39, 0, 0]\nclass = setosa", fillcolor="#e58139"] ;
1 -> 2 ;
3 [label="gini = 0.0\nsamples = 8\nvalue = [0, 11, 0]\nclass = versicolor", fillcolor="#39e581"] ;
1 -> 3 ;
4 [label="petal width (cm) <= 1.75\ngini = 0.53\nsamples = 66\nvalue = [3, 45, 52]\nclass = virginica", fillcolor="#efe6fc"] ;
0 -> 4 [labeldistance=2.5, labelangle=-45, headlabel="False"] ;
5 [label="petal length (cm) <= 2.6\ngini = 0.22\nsamples = 33\nvalue = [3, 43, 3]\nclass = versicolor", fillcolor="#53e891"] ;
4 -> 5 ;
6 [label="gini = 0.0\nsamples = 3\nvalue = [3, 0, 0]\nclass = setosa", fillcolor="#e58139"] ;
5 -> 6 ;
7 [label="petal length (cm) <= 4.95\ngini = 0.12\nsamples = 30\nvalue = [0, 43, 3]\nclass = versicolor", fillcolor="#47e78a"] ;
5 -> 7 ;
8 [label="gini = 0.0\nsamples = 26\nvalue = [0, 42, 0]\nclass = versicolor", fillcolor="#39e581"] ;
7 -> 8 ;
9 [label="sepal length (cm) <= 6.5\ngini = 0.38\nsamples = 4\nvalue = [0, 1, 3]\nclass = virginica", fillcolor="#ab7bee"] ;
7 -> 9 ;
10 [label="gini = 0.0\nsamples = 3\nvalue = [0, 0, 3]\nclass = virginica", fillcolor="#8139e5"] ;
9 -> 10 ;
11 [label="gini = 0.0\nsamples = 1\nvalue = [0, 1, 0]\nclass = versicolor", fillcolor="#39e581"] ;
9 -> 11 ;
12 [label="petal length (cm) <= 4.85\ngini = 0.08\nsamples = 33\nvalue = [0, 2, 49]\nclass = virginica", fillcolor="#8641e6"] ;
4 -> 12 ;
13 [label="sepal width (cm) <= 3.1\ngini = 0.48\nsamples = 3\nvalue = [0, 2, 3]\nclass = virginica", fillcolor="#d5bdf6"] ;
12 -> 13 ;
14 [label="gini = 0.0\nsamples = 2\nvalue = [0, 0, 3]\nclass = virginica", fillcolor="#8139e5"] ;
13 -> 14 ;
15 [label="gini = 0.0\nsamples = 1\nvalue = [0, 2, 0]\nclass = versicolor", fillcolor="#39e581"] ;
13 -> 15 ;
16 [label="gini = 0.0\nsamples = 30\nvalue = [0, 0, 46]\nclass = virginica", fillcolor="#8139e5"] ;
12 -> 16 ;
}