digraph Tree {
node [shape=box, style="filled, rounded", color="black", fontname="helvetica"] ;
edge [fontname="helvetica"] ;
0 [label="sepal length (cm) <= 5.45\ngini = 0.66\nsamples = 84\nvalue = [60, 45, 45]\nclass = setosa", fillcolor="#fbede3"] ;
1 [label="petal length (cm) <= 2.6\ngini = 0.13\nsamples = 29\nvalue = [53, 4, 0]\nclass = setosa", fillcolor="#e78b48"] ;
0 -> 1 [labeldistance=2.5, labelangle=45, headlabel="True"] ;
2 [label="gini = 0.0\nsamples = 27\nvalue = [53, 0, 0]\nclass = setosa", fillcolor="#e58139"] ;
1 -> 2 ;
3 [label="gini = 0.0\nsamples = 2\nvalue = [0, 4, 0]\nclass = versicolor", fillcolor="#39e581"] ;
1 -> 3 ;
4 [label="petal width (cm) <= 1.7\ngini = 0.57\nsamples = 55\nvalue = [7, 41, 45]\nclass = virginica", fillcolor="#f5f0fd"] ;
0 -> 4 [labeldistance=2.5, labelangle=-45, headlabel="False"] ;
5 [label="sepal width (cm) <= 3.45\ngini = 0.34\nsamples = 32\nvalue = [7, 40, 3]\nclass = versicolor", fillcolor="#67eb9e"] ;
4 -> 5 ;
6 [label="petal width (cm) <= 1.45\ngini = 0.13\nsamples = 28\nvalue = [0, 40, 3]\nclass = versicolor", fillcolor="#48e78a"] ;
5 -> 6 ;
7 [label="petal width (cm) <= 1.35\ngini = 0.06\nsamples = 22\nvalue = [0, 33, 1]\nclass = versicolor", fillcolor="#3fe685"] ;
6 -> 7 ;
8 [label="gini = 0.0\nsamples = 15\nvalue = [0, 24, 0]\nclass = versicolor", fillcolor="#39e581"] ;
7 -> 8 ;
9 [label="sepal length (cm) <= 6.35\ngini = 0.18\nsamples = 7\nvalue = [0, 9, 1]\nclass = versicolor", fillcolor="#4fe88f"] ;
7 -> 9 ;
10 [label="sepal width (cm) <= 2.75\ngini = 0.44\nsamples = 3\nvalue = [0, 2, 1]\nclass = versicolor", fillcolor="#9cf2c0"] ;
9 -> 10 ;
11 [label="gini = 0.0\nsamples = 1\nvalue = [0, 0, 1]\nclass = virginica", fillcolor="#8139e5"] ;
10 -> 11 ;
12 [label="gini = 0.0\nsamples = 2\nvalue = [0, 2, 0]\nclass = versicolor", fillcolor="#39e581"] ;
10 -> 12 ;
13 [label="gini = 0.0\nsamples = 4\nvalue = [0, 7, 0]\nclass = versicolor", fillcolor="#39e581"] ;
9 -> 13 ;
14 [label="sepal length (cm) <= 6.95\ngini = 0.35\nsamples = 6\nvalue = [0, 7, 2]\nclass = versicolor", fillcolor="#72eca5"] ;
6 -> 14 ;
15 [label="sepal length (cm) <= 6.25\ngini = 0.22\nsamples = 5\nvalue = [0, 7, 1]\nclass = versicolor", fillcolor="#55e993"] ;
14 -> 15 ;
16 [label="gini = 0.0\nsamples = 3\nvalue = [0, 5, 0]\nclass = versicolor", fillcolor="#39e581"] ;
15 -> 16 ;
17 [label="sepal length (cm) <= 6.5\ngini = 0.44\nsamples = 2\nvalue = [0, 2, 1]\nclass = versicolor", fillcolor="#9cf2c0"] ;
15 -> 17 ;
18 [label="gini = 0.0\nsamples = 1\nvalue = [0, 0, 1]\nclass = virginica", fillcolor="#8139e5"] ;
17 -> 18 ;
19 [label="gini = 0.0\nsamples = 1\nvalue = [0, 2, 0]\nclass = versicolor", fillcolor="#39e581"] ;
17 -> 19 ;
20 [label="gini = 0.0\nsamples = 1\nvalue = [0, 0, 1]\nclass = virginica", fillcolor="#8139e5"] ;
14 -> 20 ;
21 [label="gini = 0.0\nsamples = 4\nvalue = [7, 0, 0]\nclass = setosa", fillcolor="#e58139"] ;
5 -> 21 ;
22 [label="sepal length (cm) <= 5.95\ngini = 0.05\nsamples = 23\nvalue = [0, 1, 42]\nclass = virginica", fillcolor="#843ee6"] ;
4 -> 22 ;
23 [label="petal length (cm) <= 4.85\ngini = 0.28\nsamples = 4\nvalue = [0, 1, 5]\nclass = virginica", fillcolor="#9a61ea"] ;
22 -> 23 ;
24 [label="gini = 0.0\nsamples = 1\nvalue = [0, 1, 0]\nclass = versicolor", fillcolor="#39e581"] ;
23 -> 24 ;
25 [label="gini = 0.0\nsamples = 3\nvalue = [0, 0, 5]\nclass = virginica", fillcolor="#8139e5"] ;
23 -> 25 ;
26 [label="gini = 0.0\nsamples = 19\nvalue = [0, 0, 37]\nclass = virginica", fillcolor="#8139e5"] ;
22 -> 26 ;
}