digraph Tree {
node [shape=box, style="filled, rounded", color="black", fontname="helvetica"] ;
edge [fontname="helvetica"] ;
0 [label="petal length (cm) <= 2.45\ngini = 0.67\nsamples = 93\nvalue = [52, 49, 49]\nclass = setosa", fillcolor="#fefbf9"] ;
1 [label="gini = 0.0\nsamples = 32\nvalue = [52, 0, 0]\nclass = setosa", fillcolor="#e58139"] ;
0 -> 1 [labeldistance=2.5, labelangle=45, headlabel="True"] ;
2 [label="petal length (cm) <= 4.75\ngini = 0.5\nsamples = 61\nvalue = [0, 49, 49]\nclass = versicolor", fillcolor="#ffffff"] ;
0 -> 2 [labeldistance=2.5, labelangle=-45, headlabel="False"] ;
3 [label="gini = 0.0\nsamples = 29\nvalue = [0, 45, 0]\nclass = versicolor", fillcolor="#39e581"] ;
2 -> 3 ;
4 [label="petal length (cm) <= 5.15\ngini = 0.14\nsamples = 32\nvalue = [0, 4, 49]\nclass = virginica", fillcolor="#8b49e7"] ;
2 -> 4 ;
5 [label="sepal length (cm) <= 6.2\ngini = 0.36\nsamples = 11\nvalue = [0, 4, 13]\nclass = virginica", fillcolor="#a876ed"] ;
4 -> 5 ;
6 [label="petal length (cm) <= 5.05\ngini = 0.14\nsamples = 8\nvalue = [0, 1, 12]\nclass = virginica", fillcolor="#8c49e7"] ;
5 -> 6 ;
7 [label="gini = 0.0\nsamples = 4\nvalue = [0, 0, 9]\nclass = virginica", fillcolor="#8139e5"] ;
6 -> 7 ;
8 [label="sepal length (cm) <= 5.9\ngini = 0.38\nsamples = 4\nvalue = [0, 1, 3]\nclass = virginica", fillcolor="#ab7bee"] ;
6 -> 8 ;
9 [label="gini = 0.0\nsamples = 3\nvalue = [0, 0, 3]\nclass = virginica", fillcolor="#8139e5"] ;
8 -> 9 ;
10 [label="gini = 0.0\nsamples = 1\nvalue = [0, 1, 0]\nclass = versicolor", fillcolor="#39e581"] ;
8 -> 10 ;
11 [label="petal width (cm) <= 1.8\ngini = 0.38\nsamples = 3\nvalue = [0, 3, 1]\nclass = versicolor", fillcolor="#7beeab"] ;
5 -> 11 ;
12 [label="gini = 0.0\nsamples = 2\nvalue = [0, 3, 0]\nclass = versicolor", fillcolor="#39e581"] ;
11 -> 12 ;
13 [label="gini = 0.0\nsamples = 1\nvalue = [0, 0, 1]\nclass = virginica", fillcolor="#8139e5"] ;
11 -> 13 ;
14 [label="gini = 0.0\nsamples = 21\nvalue = [0, 0, 36]\nclass = virginica", fillcolor="#8139e5"] ;
4 -> 14 ;
}