digraph Tree {
node [shape=box, style="filled, rounded", color="black", fontname="helvetica"] ;
edge [fontname="helvetica"] ;
0 [label="petal width (cm) <= 0.8\ngini = 0.66\nsamples = 91\nvalue = [60, 47, 43]\nclass = setosa", fillcolor="#fcefe6"] ;
1 [label="gini = 0.0\nsamples = 34\nvalue = [60, 0, 0]\nclass = setosa", fillcolor="#e58139"] ;
0 -> 1 [labeldistance=2.5, labelangle=45, headlabel="True"] ;
2 [label="petal width (cm) <= 1.75\ngini = 0.5\nsamples = 57\nvalue = [0, 47, 43]\nclass = versicolor", fillcolor="#eefdf4"] ;
0 -> 2 [labeldistance=2.5, labelangle=-45, headlabel="False"] ;
3 [label="petal length (cm) <= 4.95\ngini = 0.17\nsamples = 30\nvalue = [0, 47, 5]\nclass = versicolor", fillcolor="#4ee88e"] ;
2 -> 3 ;
4 [label="petal width (cm) <= 1.65\ngini = 0.04\nsamples = 26\nvalue = [0, 46, 1]\nclass = versicolor", fillcolor="#3de684"] ;
3 -> 4 ;
5 [label="gini = 0.0\nsamples = 25\nvalue = [0, 46, 0]\nclass = versicolor", fillcolor="#39e581"] ;
4 -> 5 ;
6 [label="gini = 0.0\nsamples = 1\nvalue = [0, 0, 1]\nclass = virginica", fillcolor="#8139e5"] ;
4 -> 6 ;
7 [label="petal width (cm) <= 1.65\ngini = 0.32\nsamples = 4\nvalue = [0, 1, 4]\nclass = virginica", fillcolor="#a06aec"] ;
3 -> 7 ;
8 [label="gini = 0.0\nsamples = 3\nvalue = [0, 0, 4]\nclass = virginica", fillcolor="#8139e5"] ;
7 -> 8 ;
9 [label="gini = 0.0\nsamples = 1\nvalue = [0, 1, 0]\nclass = versicolor", fillcolor="#39e581"] ;
7 -> 9 ;
10 [label="gini = 0.0\nsamples = 27\nvalue = [0, 0, 38]\nclass = virginica", fillcolor="#8139e5"] ;
2 -> 10 ;
}